digraph Tree {
node [shape=box] ;
0 [label="Product Name <= 2.5\ngini = 0.42\nsamples = 2100\nvalue = [1471, 629]\nclass = No"] ;
1 [label="Commision <= -0.52\ngini = 0.334\nsamples = 1711\nvalue = [1348, 363]\nclass = No"] ;
0 -> 1 [labeldistance=2.5, labelangle=45, headlabel="True"] ;
2 [label="Product Name <= 1.5\ngini = 0.218\nsamples = 963\nvalue = [843, 120]\nclass = No"] ;
1 -> 2 ;
3 [label="Duration <= -0.325\ngini = 0.094\nsamples = 467\nvalue = [444, 23]\nclass = No"] ;
2 -> 3 ;
4 [label="Sales <= -0.52\ngini = 0.062\nsamples = 249\nvalue = [241, 8]\nclass = No"] ;
3 -> 4 ;
5 [label="Sales <= -0.689\ngini = 0.024\nsamples = 165\nvalue = [163, 2]\nclass = No"] ;
4 -> 5 ;
6 [label="gini = 0.0\nsamples = 91\nvalue = [91, 0]\nclass = No"] ;
5 -> 6 ;
7 [label="Duration <= -0.459\ngini = 0.053\nsamples = 74\nvalue = [72, 2]\nclass = No"] ;
5 -> 7 ;
8 [label="gini = 0.121\nsamples = 31\nvalue = [29, 2]\nclass = No"] ;
7 -> 8 ;
9 [label="gini = 0.0\nsamples = 43\nvalue = [43, 0]\nclass = No"] ;
7 -> 9 ;
10 [label="Sales <= 0.004\ngini = 0.133\nsamples = 84\nvalue = [78, 6]\nclass = No"] ;
4 -> 10 ;
11 [label="Duration <= -0.422\ngini = 0.18\nsamples = 60\nvalue = [54, 6]\nclass = No"] ;
10 -> 11 ;
12 [label="gini = 0.117\nsamples = 32\nvalue = [30, 2]\nclass = No"] ;
11 -> 12 ;
13 [label="gini = 0.245\nsamples = 28\nvalue = [24, 4]\nclass = No"] ;
11 -> 13 ;
14 [label="gini = 0.0\nsamples = 24\nvalue = [24, 0]\nclass = No"] ;
10 -> 14 ;
15 [label="Duration <= -0.302\ngini = 0.128\nsamples = 218\nvalue = [203, 15]\nclass = No"] ;
3 -> 15 ;
16 [label="gini = 0.32\nsamples = 15\nvalue = [12, 3]\nclass = No"] ;
15 -> 16 ;
17 [label="Sales <= -0.018\ngini = 0.111\nsamples = 203\nvalue = [191, 12]\nclass = No"] ;
15 -> 17 ;
18 [label="Sales <= -0.152\ngini = 0.131\nsamples = 171\nvalue = [159, 12]\nclass = No"] ;
17 -> 18 ;
19 [label="gini = 0.11\nsamples = 154\nvalue = [145, 9]\nclass = No"] ;
18 -> 19 ;
20 [label="gini = 0.291\nsamples = 17\nvalue = [14, 3]\nclass = No"] ;
18 -> 20 ;
21 [label="gini = 0.0\nsamples = 32\nvalue = [32, 0]\nclass = No"] ;
17 -> 21 ;
22 [label="Sales <= -0.562\ngini = 0.315\nsamples = 496\nvalue = [399, 97]\nclass = No"] ;
2 -> 22 ;
23 [label="Duration <= -0.261\ngini = 0.133\nsamples = 154\nvalue = [143, 11]\nclass = No"] ;
22 -> 23 ;
24 [label="Duration <= -0.444\ngini = 0.038\nsamples = 102\nvalue = [100, 2]\nclass = No"] ;
23 -> 24 ;
25 [label="Duration <= -0.504\ngini = 0.075\nsamples = 51\nvalue = [49, 2]\nclass = No"] ;
24 -> 25 ;
26 [label="gini = 0.0\nsamples = 16\nvalue = [16, 0]\nclass = No"] ;
25 -> 26 ;
27 [label="gini = 0.108\nsamples = 35\nvalue = [33, 2]\nclass = No"] ;
25 -> 27 ;
28 [label="gini = 0.0\nsamples = 51\nvalue = [51, 0]\nclass = No"] ;
24 -> 28 ;
29 [label="Duration <= -0.015\ngini = 0.286\nsamples = 52\nvalue = [43, 9]\nclass = No"] ;
23 -> 29 ;
30 [label="Duration <= -0.198\ngini = 0.403\nsamples = 25\nvalue = [18, 7]\nclass = No"] ;
29 -> 30 ;
31 [label="gini = 0.463\nsamples = 11\nvalue = [7, 4]\nclass = No"] ;
30 -> 31 ;
32 [label="gini = 0.337\nsamples = 14\nvalue = [11, 3]\nclass = No"] ;
30 -> 32 ;
33 [label="Sales <= -0.68\ngini = 0.137\nsamples = 27\nvalue = [25, 2]\nclass = No"] ;
29 -> 33 ;
34 [label="gini = 0.0\nsamples = 10\nvalue = [10, 0]\nclass = No"] ;
33 -> 34 ;
35 [label="gini = 0.208\nsamples = 17\nvalue = [15, 2]\nclass = No"] ;
33 -> 35 ;
36 [label="Duration <= -0.392\ngini = 0.376\nsamples = 342\nvalue = [256, 86]\nclass = No"] ;
22 -> 36 ;
37 [label="Sales <= -0.315\ngini = 0.272\nsamples = 117\nvalue = [98, 19]\nclass = No"] ;
36 -> 37 ;
38 [label="Duration <= -0.436\ngini = 0.171\nsamples = 53\nvalue = [48, 5]\nclass = No"] ;
37 -> 38 ;
39 [label="gini = 0.071\nsamples = 27\nvalue = [26, 1]\nclass = No"] ;
38 -> 39 ;
40 [label="gini = 0.26\nsamples = 26\nvalue = [22, 4]\nclass = No"] ;
38 -> 40 ;
41 [label="Sales <= 0.095\ngini = 0.342\nsamples = 64\nvalue = [50, 14]\nclass = No"] ;
37 -> 41 ;
42 [label="gini = 0.295\nsamples = 39\nvalue = [32, 7]\nclass = No"] ;
41 -> 42 ;
43 [label="gini = 0.403\nsamples = 25\nvalue = [18, 7]\nclass = No"] ;
41 -> 43 ;
44 [label="Destination <= 0.5\ngini = 0.418\nsamples = 225\nvalue = [158, 67]\nclass = No"] ;
36 -> 44 ;
45 [label="Sales <= 0.626\ngini = 0.377\nsamples = 159\nvalue = [119, 40]\nclass = No"] ;
44 -> 45 ;
46 [label="gini = 0.393\nsamples = 149\nvalue = [109, 40]\nclass = No"] ;
45 -> 46 ;
47 [label="gini = 0.0\nsamples = 10\nvalue = [10, 0]\nclass = No"] ;
45 -> 47 ;
48 [label="Sales <= -0.039\ngini = 0.483\nsamples = 66\nvalue = [39, 27]\nclass = No"] ;
44 -> 48 ;
49 [label="gini = 0.48\nsamples = 10\nvalue = [4, 6]\nclass = Yes"] ;
48 -> 49 ;
50 [label="gini = 0.469\nsamples = 56\nvalue = [35, 21]\nclass = No"] ;
48 -> 50 ;
51 [label="Sales <= -0.289\ngini = 0.439\nsamples = 748\nvalue = [505, 243]\nclass = No"] ;
1 -> 51 ;
52 [label="Commision <= -0.338\ngini = 0.39\nsamples = 468\nvalue = [344, 124]\nclass = No"] ;
51 -> 52 ;
53 [label="Sales <= -0.633\ngini = 0.499\nsamples = 106\nvalue = [51, 55]\nclass = Yes"] ;
52 -> 53 ;
54 [label="Duration <= -0.448\ngini = 0.417\nsamples = 27\nvalue = [19, 8]\nclass = No"] ;
53 -> 54 ;
55 [label="gini = 0.337\nsamples = 14\nvalue = [11, 3]\nclass = No"] ;
54 -> 55 ;
56 [label="gini = 0.473\nsamples = 13\nvalue = [8, 5]\nclass = No"] ;
54 -> 56 ;
57 [label="Duration <= -0.466\ngini = 0.482\nsamples = 79\nvalue = [32, 47]\nclass = Yes"] ;
53 -> 57 ;
58 [label="Commision <= -0.396\ngini = 0.499\nsamples = 25\nvalue = [13, 12]\nclass = No"] ;
57 -> 58 ;
59 [label="gini = 0.496\nsamples = 11\nvalue = [6, 5]\nclass = No"] ;
58 -> 59 ;
60 [label="gini = 0.5\nsamples = 14\nvalue = [7, 7]\nclass = No"] ;
58 -> 60 ;
61 [label="Duration <= -0.451\ngini = 0.456\nsamples = 54\nvalue = [19, 35]\nclass = Yes"] ;
57 -> 61 ;
62 [label="gini = 0.355\nsamples = 13\nvalue = [3, 10]\nclass = Yes"] ;
61 -> 62 ;
63 [label="gini = 0.476\nsamples = 41\nvalue = [16, 25]\nclass = Yes"] ;
61 -> 63 ;
64 [label="Sales <= -0.481\ngini = 0.309\nsamples = 362\nvalue = [293, 69]\nclass = No"] ;
52 -> 64 ;
65 [label="Commision <= -0.296\ngini = 0.139\nsamples = 160\nvalue = [148, 12]\nclass = No"] ;
64 -> 65 ;
66 [label="Duration <= -0.474\ngini = 0.226\nsamples = 54\nvalue = [47, 7]\nclass = No"] ;
65 -> 66 ;
67 [label="gini = 0.087\nsamples = 22\nvalue = [21, 1]\nclass = No"] ;
66 -> 67 ;
68 [label="gini = 0.305\nsamples = 32\nvalue = [26, 6]\nclass = No"] ;
66 -> 68 ;
69 [label="Sales <= -0.585\ngini = 0.09\nsamples = 106\nvalue = [101, 5]\nclass = No"] ;
65 -> 69 ;
70 [label="gini = 0.0\nsamples = 28\nvalue = [28, 0]\nclass = No"] ;
69 -> 70 ;
71 [label="gini = 0.12\nsamples = 78\nvalue = [73, 5]\nclass = No"] ;
69 -> 71 ;
72 [label="Commision <= -0.165\ngini = 0.405\nsamples = 202\nvalue = [145, 57]\nclass = No"] ;
64 -> 72 ;
73 [label="Sales <= -0.463\ngini = 0.499\nsamples = 63\nvalue = [30, 33]\nclass = Yes"] ;
72 -> 73 ;
74 [label="gini = 0.391\nsamples = 15\nvalue = [4, 11]\nclass = Yes"] ;
73 -> 74 ;
75 [label="gini = 0.497\nsamples = 48\nvalue = [26, 22]\nclass = No"] ;
73 -> 75 ;
76 [label="Commision <= 0.086\ngini = 0.286\nsamples = 139\nvalue = [115, 24]\nclass = No"] ;
72 -> 76 ;
77 [label="gini = 0.187\nsamples = 67\nvalue = [60, 7]\nclass = No"] ;
76 -> 77 ;
78 [label="gini = 0.361\nsamples = 72\nvalue = [55, 17]\nclass = No"] ;
76 -> 78 ;
79 [label="Commision <= 0.095\ngini = 0.489\nsamples = 280\nvalue = [161, 119]\nclass = No"] ;
51 -> 79 ;
80 [label="Sales <= -0.064\ngini = 0.48\nsamples = 80\nvalue = [32, 48]\nclass = Yes"] ;
79 -> 80 ;
81 [label="Commision <= -0.018\ngini = 0.497\nsamples = 56\nvalue = [30, 26]\nclass = No"] ;
80 -> 81 ;
82 [label="Duration <= -0.235\ngini = 0.492\nsamples = 39\nvalue = [17, 22]\nclass = Yes"] ;
81 -> 82 ;
83 [label="gini = 0.499\nsamples = 27\nvalue = [14, 13]\nclass = No"] ;
82 -> 83 ;
84 [label="gini = 0.375\nsamples = 12\nvalue = [3, 9]\nclass = Yes"] ;
82 -> 84 ;
85 [label="gini = 0.36\nsamples = 17\nvalue = [13, 4]\nclass = No"] ;
81 -> 85 ;
86 [label="Sales <= 0.051\ngini = 0.153\nsamples = 24\nvalue = [2, 22]\nclass = Yes"] ;
80 -> 86 ;
87 [label="gini = 0.0\nsamples = 14\nvalue = [0, 14]\nclass = Yes"] ;
86 -> 87 ;
88 [label="gini = 0.32\nsamples = 10\nvalue = [2, 8]\nclass = Yes"] ;
86 -> 88 ;
89 [label="Sales <= 0.129\ngini = 0.458\nsamples = 200\nvalue = [129, 71]\nclass = No"] ;
79 -> 89 ;
90 [label="Commision <= 0.514\ngini = 0.387\nsamples = 84\nvalue = [62, 22]\nclass = No"] ;
89 -> 90 ;
91 [label="gini = 0.0\nsamples = 19\nvalue = [19, 0]\nclass = No"] ;
90 -> 91 ;
92 [label="Commision <= 0.945\ngini = 0.448\nsamples = 65\nvalue = [43, 22]\nclass = No"] ;
90 -> 92 ;
93 [label="gini = 0.489\nsamples = 33\nvalue = [19, 14]\nclass = No"] ;
92 -> 93 ;
94 [label="gini = 0.375\nsamples = 32\nvalue = [24, 8]\nclass = No"] ;
92 -> 94 ;
95 [label="Commision <= 0.426\ngini = 0.488\nsamples = 116\nvalue = [67, 49]\nclass = No"] ;
89 -> 95 ;
96 [label="gini = 0.388\nsamples = 19\nvalue = [5, 14]\nclass = Yes"] ;
95 -> 96 ;
97 [label="Duration <= -0.343\ngini = 0.461\nsamples = 97\nvalue = [62, 35]\nclass = No"] ;
95 -> 97 ;
98 [label="gini = 0.298\nsamples = 22\nvalue = [18, 4]\nclass = No"] ;
97 -> 98 ;
99 [label="gini = 0.485\nsamples = 75\nvalue = [44, 31]\nclass = No"] ;
97 -> 99 ;
100 [label="Sales <= -0.436\ngini = 0.432\nsamples = 389\nvalue = [123, 266]\nclass = Yes"] ;
0 -> 100 [labeldistance=2.5, labelangle=-45, headlabel="False"] ;
101 [label="Commision <= -0.294\ngini = 0.475\nsamples = 54\nvalue = [33, 21]\nclass = No"] ;
100 -> 101 ;
102 [label="Commision <= -0.354\ngini = 0.5\nsamples = 37\nvalue = [19, 18]\nclass = No"] ;
101 -> 102 ;
103 [label="gini = 0.408\nsamples = 14\nvalue = [10, 4]\nclass = No"] ;
102 -> 103 ;
104 [label="Duration <= -0.451\ngini = 0.476\nsamples = 23\nvalue = [9, 14]\nclass = Yes"] ;
102 -> 104 ;
105 [label="gini = 0.426\nsamples = 13\nvalue = [4, 9]\nclass = Yes"] ;
104 -> 105 ;
106 [label="gini = 0.5\nsamples = 10\nvalue = [5, 5]\nclass = No"] ;
104 -> 106 ;
107 [label="gini = 0.291\nsamples = 17\nvalue = [14, 3]\nclass = No"] ;
101 -> 107 ;
108 [label="Duration <= -0.451\ngini = 0.393\nsamples = 335\nvalue = [90, 245]\nclass = Yes"] ;
100 -> 108 ;
109 [label="gini = 0.499\nsamples = 19\nvalue = [10, 9]\nclass = No"] ;
108 -> 109 ;
110 [label="Type <= 0.5\ngini = 0.378\nsamples = 316\nvalue = [80, 236]\nclass = Yes"] ;
108 -> 110 ;
111 [label="Duration <= -0.377\ngini = 0.363\nsamples = 285\nvalue = [68, 217]\nclass = Yes"] ;
110 -> 111 ;
112 [label="Sales <= -0.33\ngini = 0.448\nsamples = 56\nvalue = [19, 37]\nclass = Yes"] ;
111 -> 112 ;
113 [label="gini = 0.32\nsamples = 10\nvalue = [2, 8]\nclass = Yes"] ;
112 -> 113 ;
114 [label="Commision <= -0.104\ngini = 0.466\nsamples = 46\nvalue = [17, 29]\nclass = Yes"] ;
112 -> 114 ;
115 [label="gini = 0.496\nsamples = 11\nvalue = [6, 5]\nclass = No"] ;
114 -> 115 ;
116 [label="gini = 0.431\nsamples = 35\nvalue = [11, 24]\nclass = Yes"] ;
114 -> 116 ;
117 [label="Duration <= 2.332\ngini = 0.336\nsamples = 229\nvalue = [49, 180]\nclass = Yes"] ;
111 -> 117 ;
118 [label="Duration <= 2.227\ngini = 0.318\nsamples = 202\nvalue = [40, 162]\nclass = Yes"] ;
117 -> 118 ;
119 [label="gini = 0.348\nsamples = 165\nvalue = [37, 128]\nclass = Yes"] ;
118 -> 119 ;
120 [label="gini = 0.149\nsamples = 37\nvalue = [3, 34]\nclass = Yes"] ;
118 -> 120 ;
121 [label="Commision <= 1.73\ngini = 0.444\nsamples = 27\nvalue = [9, 18]\nclass = Yes"] ;
117 -> 121 ;
122 [label="gini = 0.5\nsamples = 12\nvalue = [6, 6]\nclass = No"] ;
121 -> 122 ;
123 [label="gini = 0.32\nsamples = 15\nvalue = [3, 12]\nclass = Yes"] ;
121 -> 123 ;
124 [label="Duration <= 2.197\ngini = 0.475\nsamples = 31\nvalue = [12, 19]\nclass = Yes"] ;
110 -> 124 ;
125 [label="gini = 0.498\nsamples = 17\nvalue = [8, 9]\nclass = Yes"] ;
124 -> 125 ;
126 [label="gini = 0.408\nsamples = 14\nvalue = [4, 10]\nclass = Yes"] ;
124 -> 126 ;
}